{
    "biases": {
        "1": [0.5396156923635708, -0.087533283840325, 1.3580229696162174, 1.2111825924790198, 1.1500425887802148],
        "0": [-0.9816469604969835, 1.0409291470959603, 1.5812339308975227, -0.3635891161453586, 1.568699461722417, 0.11092669847504127, 1.8051543543311233, 0.7639281503089347, 1.6108446784922266, 2.248277715949588],
        "2": [-2.654366112338882]
    },
    "activations": { "1": "relu", "0": "relu", "2": "identity" },
    "samples": {
        "y": [179.60021467859866, 69.0703902045512, 83.47798067399766, -41.85097783595457, -126.51170694644465],
        "X": [
            [0.144043571160878, 0.12167501649282841, 1.454273506962975, 0.44386323274542566, 0.7610377251469934],
            [0.18877859679382855, -0.3108861716984717, 0.5238910238342056, 0.09740016626878341, 0.08842208704466141],
            [-1.6760038063299767, -0.8133642592042029, 1.15233156478312, -1.466424327802514, 1.079618592036821],
            [-0.2803554951845091, 0.5785214977288784, -0.3646935443916854, 0.349654456993174, 0.15670385527236397],
            [0.8443629764015471, 1.1880297923523018, -1.0002153473895647, 0.3169426119248496, -1.5447710967776116]
        ]
    },
    "weights": {
        "1": [
            [1.0514116749637026, 1.582990931194013, 1.715530225734099, 1.4287485465766274, -2.668083819330713],
            [1.0033222636298007, 1.1572606206124258, 0.901871745348221, 1.4760882246955003, 1.5125090113649677],
            [0.9967296045847095, -0.2283532687740278, 0.21178942616177784, 1.0974967886159226, 1.9792786789125782],
            [0.9102745956171224, 1.902566768288991, 1.0349046169826843, 1.615753685900469, 0.6681752602311937],
            [1.5692433871207616, 0.9323056486644846, 1.3849963909373673, 0.8649787059808933, 0.6836064165755062],
            [1.7393814253543354, 1.0740758363667164, 1.7972694763389037, 1.4436631639385262, 0.8467306167510333],
            [0.06184327107386696, -0.03914386241991347, -0.07500958301318954, 0.07439462125014946, 2.045398824789556],
            [-1.5510446196746068, 0.587793252131702, -0.4274749458069649, -1.4124672909589322, 2.3246532373086195],
            [0.6127636446846778, -0.36055368875429233, 0.1635612445078388, 0.19039317955076315, 2.6242902592867625],
            [1.3720395529840783, 0.2086334137294581, 1.7279534407947363, 1.4493126352326056, -0.023977912303962533]
        ],
        "0": [
            [1.1195705356999184, 1.5296000953416056, -2.4356715988962283, 1.103404810683941, -0.29230163033469053, 0.6995058693414968, -1.1654816712341023, -1.4574322023436368, -1.5627732771928997, 0.4982660466571004],
            [-0.7057734034401408, -0.023742571440794242, 0.48623632556147695, 1.8567919445078083, 0.1251205062709445, -0.5229881705245413, 1.631488192131226, 0.6371781783433084, -2.1081662144243913, 0.3048326338067185],
            [2.28740773236051, 1.5671574131214527, -2.5993922106686096, 1.3796006425682235, 1.3325355206835532, 1.7534500843585579, -2.883482684432362, -3.1352043070959046, -2.427913123259658, 1.0598660185762365],
            [-1.0635075656279507, 0.931014317565428, 1.2078517792561865, 1.2342354897634695, 0.5965741256479233, -0.3531859217689234, -0.13332117145445505, 1.580663365992141, -2.041195864573437, 0.4548946489303578],
            [0.9826091759669148, 1.55817690058158, -1.6020116629028194, 1.3266483438252645, -0.10319957206072129, 0.543422370030861, -0.20456841095475398, -1.5129160917656224, -1.9074578205041188, 0.3425208650696916]
        ],
        "2": [
            [1.8137757688281821],
            [1.6814306184527898],
            [2.0014329666443933],
            [1.6182665724199732],
            [-3.046242611909407]
        ]
    }
}