{
    "biases": {
        "1": [0.08806656329437026, 0.29391611642937365, -1.016834367051084, 0.5889455280296042, -0.7184180295366998],
        "0": [3.086903246773157, 2.5591901396896537, 1.912153175022933, 1.7090769416129168, -1.762715574157108, 2.148095253840701, 3.2318014015171608, -0.7590256353480415, -0.2886166601024932, -2.241314870750477],
        "2": [-0.4714652923019888, -0.09464264984997603, 1.1354660753784929]
    },
    "activations": { "1": "logistic", "0": "logistic", "2": "softmax" },
    "samples": {
        "y": [
            [0.9747443260228633, 0.01699942936107158, 0.008256244616065058],
            [0.8948738669016122, 0.08565419463221507, 0.019471938466172647],
            [0.9747001745919929, 0.017062048172403955, 0.00823777723560299],
            [0.0006659078867696164, 0.06690160657147112, 0.9324324855417592],
            [0.0005443259772627325, 0.056947918767956476, 0.9425077552547807]
        ],
        "X": [
            [1.0110051002727425, 2.3517131480413234, -2.7552833207779055, -1.0843771875405763, -0.45850443946459485],
            [1.120707104715692, 2.3187631972540235, -3.3457623412035375, -1.5374276720041449, 0.4607801108597098],
            [1.3990425752036486, 2.204749626694289, -3.073397847168526, -1.1279265373604126, -0.3345203191463252],
            [-2.5583885793396766, -0.08042834484085337, 2.439000504249292, 0.3077472695948518, 0.195477430603768],
            [-3.2433500019572703, -0.6458275436243733, 1.974005115364446, -0.74545763536891, 3.094997155961705]
        ]
    },
    "weights": {
        "1": [
            [2.3081841694087806, -0.9655098532179659, 1.102622746499022, -1.6127412877099863, -2.747443312642209],
            [-0.463746849206458, 1.6335352424011025, -2.1897160740520545, 2.518181372736455, 0.9988819875936026],
            [2.53305484137794, -1.0216140267663498, 0.8879767496746901, -1.13687414467252, -1.7011739581773806],
            [-0.974054477633203, 1.6100266289445895, -2.0188090474969207, 2.317242626473856, 0.9891420777373384],
            [2.4568714500320255, -0.49686145152158, 1.0086664429567653, -1.1980659975108474, -2.3661920911882484],
            [2.3626399238512907, -0.7807593715338608, 1.4173842986440204, -1.0119895497403562, -1.618630630751576],
            [0.058510615458054895, 1.7210381464582472, -2.2450894196789473, 2.9531661667947744, 0.17316335945572894],
            [-1.695141887092307, 1.2673088842632876, -1.381129290174752, 1.6766277953772817, 1.5767849403732148],
            [-1.8521479422177054, 0.9429778749834844, -1.2433074444397088, 1.6542948939548232, 2.0786976226514806],
            [1.4799952734145512, -1.443546506202215, 2.518525767467782, -1.81800773557472, -1.0893315287416627]
        ],
        "0": [
            [-0.22804821324298427, 0.8670245498471728, -2.2817070762006515, 0.05947096039547619, -2.7870078250421915, -2.2009988130631135, 0.9313250625750408, 0.009700495636278325, 2.1204780976414135, 0.031177468761887747],
            [-1.3525333829577777, 2.3060268767185716, 0.20057158971267292, 1.890281814102736, 0.9963291024720923, 0.5347113104534136, 1.7302560262698625, 1.304424735181926, -0.909360271984267, -1.936621931345795],
            [0.06443008285228531, -1.5255817378526497, 1.1424966409887554, -0.5099145813423951, 2.6839647394647423, 1.5096701194268625, -2.1226403416601616, -0.4331445408241011, -2.3745602069762635, 0.7634870687430051],
            [-1.4804259609567887, -1.9884212349218815, -1.540757727187541, -0.8830571035671745, -0.63477698386294, -1.6672367250780586, -0.8090345184546192, 0.6482205868428665, 0.16165933789757164, 0.3958007805048383],
            [3.291054260915094, -0.47327161149146824, 1.6650232894130461, -0.8425873140925861, 0.06236545942288403, 1.0262646495649368, -1.3495471708063211, -1.8839601819044973, -1.2424377006353453, 1.130718901243864]
        ],
        "2": [
            [-1.3158747952552214, 2.665194615724645, 1.4937002359139708],
            [1.0712986134949236, -0.02767960385948632, -1.4704130700918827],
            [-1.6702732337756492, -1.3634974382012703, 1.4216739508922782],
            [0.8952119061163064, 1.790307093454775, -1.3701887535198365],
            [1.6062495463636712, -2.898567657969241, -0.12501321552172512]
        ]
    }
}